<?xml version="1.0"?>
<opencv_storage>
<stage2>
  <maxWeakCount>7</maxWeakCount>
  <stageThreshold>-1.5865553617477417e+00</stageThreshold>
  <weakClassifiers>
    <_>
      <internalNodes>
        0 -1 1653 -707198977 -716186129 285408767 -706879489 -621614085
        -544215925 -1161822469 -6291521</internalNodes>
      <leafValues>
        -7.5990456342697144e-01 1.9743590056896210e-01</leafValues></_>
    <_>
      <internalNodes>
        0 -1 5980 -116041899 -134392495 2102727133 -35670691 -1172255032
        -1081985872 520489866 -1081408978</internalNodes>
      <leafValues>
        -5.2436202764511108e-01 4.2846238613128662e-01</leafValues></_>
    <_>
      <internalNodes>
        0 -1 4596 -265766168 2067439114 1607727356 2139438079 -767512648
        -99430880 -625140897 531963773</internalNodes>
      <leafValues>
        -7.3607772588729858e-01 2.4814470112323761e-01</leafValues></_>
    <_>
      <internalNodes>
        0 -1 6617 -669315056 -595854863 -1252576865 -23203330
        -1423767397 -813073441 697903277 -1097917164</internalNodes>
      <leafValues>
        -4.9083739519119263e-01 3.4722927212715149e-01</leafValues></_>
    <_>
      <internalNodes>
        0 -1 4180 -951530776 -171392812 2130771145 2035374084 1736486574
        -21763905 403312298 389221047</internalNodes>
      <leafValues>
        -6.3323462009429932e-01 2.9283618927001953e-01</leafValues></_>
    <_>
      <internalNodes>
        0 -1 7820 263979121 1806506873 -28475649 -290630787 -1749799575
        -1074973699 1331625828 159391636</internalNodes>
      <leafValues>
        -6.1743479967117310e-01 2.8579151630401611e-01</leafValues></_>
    <_>
      <internalNodes>
        0 -1 4997 -540810502 -53816836 1481438463 -579930371 -2105523674
        2139255551 805563055 1508531432</internalNodes>
      <leafValues>
        -5.0794541835784912e-01 3.4599864482879639e-01</leafValues></_></weakClassifiers></stage2>
</opencv_storage>
