<?xml version="1.0"?>
<opencv_storage>
<stage4>
  <maxWeakCount>9</maxWeakCount>
  <stageThreshold>-1.4830051660537720e+00</stageThreshold>
  <weakClassifiers>
    <_>
      <internalNodes>
        0 -1 2373 -645268997 -15100431 -788407811 -145026625 -1148651265
        -6040872 -1947493381 -5377</internalNodes>
      <leafValues>
        -7.1824067831039429e-01 3.8085541129112244e-01</leafValues></_>
    <_>
      <internalNodes>
        0 -1 1760 -15806209 -217050884 687919839 456065677 -95487238
        -292250433 151842809 -1156593671</internalNodes>
      <leafValues>
        -4.9167376756668091e-01 3.7336510419845581e-01</leafValues></_>
    <_>
      <internalNodes>
        0 -1 5960 -788508460 -615425071 -1861143587 1528772179
        -1692550931 -1618359347 50566077 463098872</internalNodes>
      <leafValues>
        -5.0407540798187256e-01 3.2624262571334839e-01</leafValues></_>
    <_>
      <internalNodes>
        0 -1 3500 -239080872 -243326467 -216884527 2077458008
        -1579579174 -1176900653 -1322058789 1474265035</internalNodes>
      <leafValues>
        -4.7461068630218506e-01 3.3804500102996826e-01</leafValues></_>
    <_>
      <internalNodes>
        0 -1 4963 -335863136 2130610836 1116348942 1456064519 2047781226
        1367051021 -1068817893 1979159576</internalNodes>
      <leafValues>
        -5.1804286241531372e-01 3.2991802692413330e-01</leafValues></_>
    <_>
      <internalNodes>
        0 -1 3578 -905814278 1939978442 1477678216 1309235057 -668798230
        -152397168 1226467761 -6316566</internalNodes>
      <leafValues>
        -5.6485903263092041e-01 2.8013026714324951e-01</leafValues></_>
    <_>
      <internalNodes>
        0 -1 5076 1600863406 -580049248 -195166483 -1826873337 589249974
        2134387211 1392720795 438024118</internalNodes>
      <leafValues>
        -5.5505609512329102e-01 3.0539771914482117e-01</leafValues></_>
    <_>
      <internalNodes>
        0 -1 6673 839184600 -149061421 893994109 2123270446 -1847395922
        -579236801 -988729363 -1156332647</internalNodes>
      <leafValues>
        -4.2443901300430298e-01 3.9070633053779602e-01</leafValues></_>
    <_>
      <internalNodes>
        0 -1 4115 -151148416 -573349495 1628439829 -142097761 -125044603
        1057693880 2127391405 1766462353</internalNodes>
      <leafValues>
        -5.1776778697967529e-01 3.0987331271171570e-01</leafValues></_></weakClassifiers></stage4>
</opencv_storage>
