<?xml version="1.0"?>
<opencv_storage>
<stage3>
  <maxWeakCount>7</maxWeakCount>
  <stageThreshold>-2.0893976688385010e+00</stageThreshold>
  <weakClassifiers>
    <_>
      <internalNodes>
        0 -1 7210 -10487057 -76301813 1326574600 -136318929 -623396689
        -1752717053 -138418705 -67110913</internalNodes>
      <leafValues>
        -7.4395912885665894e-01 2.5825825333595276e-01</leafValues></_>
    <_>
      <internalNodes>
        0 -1 5842 -134219890 -260063014 1430750532 -550092202 -162040945
        -83384270 1954535031 -12599633</internalNodes>
      <leafValues>
        -5.4192310571670532e-01 3.5966691374778748e-01</leafValues></_>
    <_>
      <internalNodes>
        0 -1 6191 -83635574 -1081345639 1879118369 1431282043 1350772361
        -1439317104 404286266 1325910662</internalNodes>
      <leafValues>
        -5.2710789442062378e-01 3.2395169138908386e-01</leafValues></_>
    <_>
      <internalNodes>
        0 -1 4045 -169427894 -197002774 -40331008 1684777954 -1578276166
        -205522494 -1832408297 -1413502069</internalNodes>
      <leafValues>
        -6.2074571847915649e-01 2.6070672273635864e-01</leafValues></_>
    <_>
      <internalNodes>
        0 -1 6708 -670042024 -11253692 1397169243 2107562143 -1989438822
        -1862219648 1058716634 2042072719</internalNodes>
      <leafValues>
        -4.6864867210388184e-01 3.7094572186470032e-01</leafValues></_>
    <_>
      <internalNodes>
        0 -1 7011 -538759174 53186834 -1367289375 806758148 -280862914
        -135225478 -1290948657 -1075107381</internalNodes>
      <leafValues>
        -3.9021292328834534e-01 4.0555441379547119e-01</leafValues></_>
    <_>
      <internalNodes>
        0 -1 405 -650643074 -203673888 1521103503 -960189242 -176866027
        -1122705376 520234583 1511834785</internalNodes>
      <leafValues>
        -5.3798460960388184e-01 3.1143730878829956e-01</leafValues></_></weakClassifiers></stage3>
</opencv_storage>
