<?xml version="1.0"?>
<opencv_storage>
<stage1>
  <maxWeakCount>6</maxWeakCount>
  <stageThreshold>-1.6685407161712646e+00</stageThreshold>
  <weakClassifiers>
    <_>
      <internalNodes>
        0 -1 4587 -1025 -221519169 -1056386880 -250616885 -791676277
        269025288 -765725745 -201327617</internalNodes>
      <leafValues>
        -7.5696665048599243e-01 4.7972974181175232e-01</leafValues></_>
    <_>
      <internalNodes>
        0 -1 6262 -548537142 -648685142 21354378 1935405655 -787490162
        1367556482 -630464545 -11554933</internalNodes>
      <leafValues>
        -5.9535801410675049e-01 3.7058228254318237e-01</leafValues></_>
    <_>
      <internalNodes>
        0 -1 5095 -606100854 -108051516 50532994 -718155511 -802177814
        1250624257 1498016475 -213932113</internalNodes>
      <leafValues>
        -4.7667101025581360e-01 4.9305707216262817e-01</leafValues></_>
    <_>
      <internalNodes>
        0 -1 3008 -1141065160 -36605735 -77360760 -1077083960 984066046
        -218235977 -1417486390 -7368759</internalNodes>
      <leafValues>
        -5.4614448547363281e-01 4.0830215811729431e-01</leafValues></_>
    <_>
      <internalNodes>
        0 -1 5558 -716515200 -7520064 1563462347 -6038261 -1111504434
        2004523368 -1612706609 1498073801</internalNodes>
      <leafValues>
        -6.6194820404052734e-01 3.1851550936698914e-01</leafValues></_>
    <_>
      <internalNodes>
        0 -1 6898 -506468214 1370206858 26279946 328092142 34601643
        302616577 1934211475 1099820270</internalNodes>
      <leafValues>
        -4.7952997684478760e-01 3.9881959557533264e-01</leafValues></_></weakClassifiers></stage1>
</opencv_storage>
